0.0106893, 0.019119, -0.0349017, 0.00700917, -0.0390544, -0.0353535, 0.0390187, 0.0447719, -0.0167111, 0.0576678, -0.104134, -0.024585, 0.0262195, -0.0641204, -0.0300221, -0.0327197, 
-0.0223009, 0.102833, -0.0945898, -0.0699354, 0.0641679, -0.0263976, 0.125916, 0.0231604, -0.0219553, -0.0670248, -0.00752483, -0.0269329, 0.0611524, 0.0263399, 0.0146492, -0.178795, 
-0.0409124, -0.0306582, -0.0604266, -0.0850061, -0.0260074, -0.0413237, -0.112316, -0.0674772, -0.0301926, 0.00334947, -0.0535505, -0.0570908, -0.0234505, -0.10808, -0.0429783, -0.0227431, 
-0.129842, -0.0328715, -0.0215378, 0.100874, -0.047687, -0.0350367, 0.00535038, -0.000659162, -0.0241477, -0.0789403, 0.0339219, 0.00106895, 0.0353826, -0.0524175, 0.0691774, 0.00818834, 
-0.0181581, 0.00562046, -0.0857617, -0.0520601, 0.0495608, 0.0749024, 0.0436964, 0.0376548, -0.075315, -0.0882468, -0.0459907, -0.0846109, 0.0631827, -0.0325407, -0.0270117, -0.049003, 
-0.0373246, -0.0343646, 0.0949881, -0.0705932, -0.131943, -0.00616889, -0.0497919, -0.0621364, -0.0827532, 0.00234974, -0.0105239, 0.0349029, -0.0459722, -0.0726114, -0.00298447, -0.075604, 
0.00814654, 0.0949123, 0.0745685, -0.0698268, -0.0154938, 0.0516937, -0.0412582, -0.0893262, -0.0266431, 0.0218486, -0.0588052, -0.0445099, -0.142093, -0.0502239, -0.0203746, -0.127667, 
-0.0176205, -0.0279094, -0.0256856, -0.0662, 0.0528693, 0.0140276, 0.0303738, -0.0275497, 0.00922497, -0.0365446, -0.0279251, -0.174641, -0.040433, -0.0419737, -0.0283973, 0.112342
