-0.0922498, -0.101497, 0.0717868, -0.0732887, 0.0303571, -0.0116935, -0.157838, -0.0162475, -0.120516, -0.0329458, -0.013865, -0.186777, -0.14951, -0.0589644, -0.00836791, 0.0389182, 
0.0739332, -0.131609, 0.0781744, -0.000679747, -0.151205, -0.0230214, 0.0919076, 0.0120429, 0.0122468, 0.0557489, -0.181489, -0.00906289, -0.00256495, -0.0685309, 0.124322, -0.215347, 
0.092195, -0.0431921, -0.142881, -0.0144083, 0.114437, 0.00802413, -0.172215, -0.11272, -0.0125343, -0.0562476, -0.0285009, -0.0525124, -0.0200751, -0.175077, -0.138845, -0.163595, 
-0.0736723, -0.0524504, -0.00787496, -0.0944752, -0.148596, -0.00873098, 0.0472193, -0.0157213, -0.0188155, -0.0845479, -0.176184, 0.0982161, 0.0310084, -0.0330967, -0.0078855, 0.0303678, 
-0.146376, -0.000203542, -0.027086, -0.0132423, -0.0167069, -0.140564, -0.0120034, 0.0598752, -0.189765, 0.0121951, 0.00259884, -0.176331, -0.0118466, -0.0859195, -0.0174182, -0.070209, 
-0.256896, -0.134286, -0.0196929, 0.026401, -0.081007, 0.0635789, -0.0900706, -0.0137642, -0.0748037, 0.0656568, 0.00394699, -0.0949151, -0.150972, -0.22034, -0.093424, -0.0118578, 
-0.0985238, 0.0261652, -0.0157267, 0.0139636, -0.00845065, 0.0405103, -0.0187586, 0.0227311, -0.080655, -0.204047, -0.00393052, -0.0174777, -0.143481, -0.0914684, -0.0880754, -0.0581606, 
0.10179, -0.0126196, -0.170282, -0.0439953, -0.014357, 0.104867, -0.00935864, -0.112866, -0.011281, -0.018325, -0.100487, -0.125927, -0.0533005, -0.0698478, -0.0126439, -0.119048
