0.0354098, -0.0396581, -0.0121853, -0.00527834, 0.135056, -0.0227111, -0.0655997, -0.0245588, 0.0331543, 0.0109574, -0.0322674, -0.0124735, -0.0476197, -0.00360062, -0.0215719, -0.0143952, 
-0.0191235, 0.0308028, -0.017597, -0.0463993, -0.0831215, 0.0148527, -0.0122491, 0.0599961, -0.0705483, -0.0152993, 0.0509531, -0.0173016, -0.0529413, -0.0358588, -0.0116363, -0.0263421, 
-0.00658596, -0.0673374, -0.00580856, -0.0526053, -0.00766046, -0.0211643, 0.0482392, -0.00825114, -0.0105657, -0.0176441, -0.0196857, -0.0152561, 0.131038, 0.0433269, -0.0106961, -0.0179587, 
0.0170929, -0.014241, -0.0115964, 0.0385165, -0.0157083, -0.0396113, -0.0388264, -0.0158779, -0.0411705, -0.00894876, -0.0645473, -0.0559612, -0.0142739, -0.0729565, -0.018515, -0.0139522, 
0.0325315, -0.0452221, -0.00629799, -0.123116, -0.0010169, 0.0377556, -0.0311922, -0.0412039, -0.021708, 0.0136452, 0.0300168, 0.0535071, -0.0807457, -0.0154221, 0.0128127, 0.0286529, 
-0.0190425, -0.018173, -0.0115523, -0.017008, 0.005145, 0.00830992, 0.0367206, 0.0164373, -0.0176866, -0.0972288, -0.0218329, 0.0135175, -0.00728272, -0.0436258, -0.0422641, 0.00386831, 
-0.0183116, -0.0916819, 0.00779401, -0.0175614, 0.0492665, 0.0484801, -0.0148882, -0.0177767, 0.0100124, 0.000133333, -0.0629531, -0.00482894, 0.0467806, -0.024775, 0.00438609, 0.00275253, 
-0.0126436, -0.0126182, 0.0373589, -0.0443261, 0.0377682, -0.0101791, -0.0187864, 0.07273, -0.0659144, -0.00481278, -0.0175248, -0.145673, 0.0180042, -0.0149105, -0.0604033, 0.0341953
